digraph Tree {
node [shape=box, style="filled, rounded", color="black", fontname=helvetica] ;
edge [fontname=helvetica] ;
0 [label="petal width (cm) <= 0.296\nentropy = 1.0\nsamples = 8000\nvalue = [3987, 4013]\nclass = versicolor", fillcolor="#fefeff"] ;
1 [label="petal length (cm) <= -0.476\nentropy = 0.799\nsamples = 4275\nvalue = [1036, 3239]\nclass = versicolor", fillcolor="#78bced"] ;
0 -> 1 [labeldistance=2.5, labelangle=45, headlabel="True"] ;
3 [label="petal length (cm) <= -0.844\nentropy = 0.474\nsamples = 472\nvalue = [424, 48]\nclass = setosa", fillcolor="#e88f4f"] ;
1 -> 3 ;
15 [label="entropy = 0.058\nsamples = 297\nvalue = [295, 2]\nclass = setosa", fillcolor="#e5823a"] ;
3 -> 15 ;
16 [label="entropy = 0.831\nsamples = 175\nvalue = [129, 46]\nclass = setosa", fillcolor="#eeae80"] ;
3 -> 16 ;
4 [label="petal width (cm) <= -0.173\nentropy = 0.637\nsamples = 3803\nvalue = [612, 3191]\nclass = versicolor", fillcolor="#5fb0ea"] ;
1 -> 4 ;
7 [label="petal length (cm) <= 1.359\nentropy = 0.337\nsamples = 2034\nvalue = [127, 1907]\nclass = versicolor", fillcolor="#46a4e7"] ;
4 -> 7 ;
23 [label="petal width (cm) <= -0.531\nentropy = 0.417\nsamples = 1400\nvalue = [118, 1282]\nclass = versicolor", fillcolor="#4ba6e7"] ;
7 -> 23 ;
25 [label="entropy = 0.213\nsamples = 621\nvalue = [21, 600]\nclass = versicolor", fillcolor="#40a0e6"] ;
23 -> 25 ;
26 [label="entropy = 0.542\nsamples = 779\nvalue = [97, 682]\nclass = versicolor", fillcolor="#55abe9"] ;
23 -> 26 ;
24 [label="entropy = 0.107\nsamples = 634\nvalue = [9, 625]\nclass = versicolor", fillcolor="#3c9ee5"] ;
7 -> 24 ;
8 [label="petal length (cm) <= 1.516\nentropy = 0.847\nsamples = 1769\nvalue = [485, 1284]\nclass = versicolor", fillcolor="#84c2ef"] ;
4 -> 8 ;
11 [label="petal width (cm) <= 0.131\nentropy = 0.94\nsamples = 1310\nvalue = [467, 843]\nclass = versicolor", fillcolor="#a7d3f3"] ;
8 -> 11 ;
21 [label="petal length (cm) <= 0.631\nentropy = 0.868\nsamples = 853\nvalue = [247, 606]\nclass = versicolor", fillcolor="#8ac5f0"] ;
11 -> 21 ;
37 [label="petal length (cm) <= -0.189\nentropy = 0.774\nsamples = 435\nvalue = [99, 336]\nclass = versicolor", fillcolor="#73baed"] ;
21 -> 37 ;
39 [label="entropy = 0.987\nsamples = 74\nvalue = [32, 42]\nclass = versicolor", fillcolor="#d0e8f9"] ;
37 -> 39 ;
40 [label="entropy = 0.692\nsamples = 361\nvalue = [67, 294]\nclass = versicolor", fillcolor="#66b3eb"] ;
37 -> 40 ;
38 [label="entropy = 0.938\nsamples = 418\nvalue = [148, 270]\nclass = versicolor", fillcolor="#a6d3f3"] ;
21 -> 38 ;
22 [label="petal length (cm) <= 0.479\nentropy = 0.999\nsamples = 457\nvalue = [220, 237]\nclass = versicolor", fillcolor="#f1f8fd"] ;
11 -> 22 ;
27 [label="petal length (cm) <= -0.162\nentropy = 0.93\nsamples = 200\nvalue = [69, 131]\nclass = versicolor", fillcolor="#a1d1f3"] ;
22 -> 27 ;
35 [label="entropy = 0.99\nsamples = 61\nvalue = [34, 27]\nclass = setosa", fillcolor="#fae5d6"] ;
27 -> 35 ;
36 [label="entropy = 0.814\nsamples = 139\nvalue = [35, 104]\nclass = versicolor", fillcolor="#7cbeee"] ;
27 -> 36 ;
28 [label="entropy = 0.978\nsamples = 257\nvalue = [151, 106]\nclass = setosa", fillcolor="#f7d9c4"] ;
22 -> 28 ;
12 [label="petal length (cm) <= 1.897\nentropy = 0.239\nsamples = 459\nvalue = [18, 441]\nclass = versicolor", fillcolor="#41a1e6"] ;
8 -> 12 ;
29 [label="entropy = 0.405\nsamples = 223\nvalue = [18, 205]\nclass = versicolor", fillcolor="#4aa6e7"] ;
12 -> 29 ;
30 [label="entropy = 0.0\nsamples = 236\nvalue = [0, 236]\nclass = versicolor", fillcolor="#399de5"] ;
12 -> 30 ;
2 [label="petal length (cm) <= 1.452\nentropy = 0.737\nsamples = 3725\nvalue = [2951, 774]\nclass = setosa", fillcolor="#eca26d"] ;
0 -> 2 [labeldistance=2.5, labelangle=-45, headlabel="False"] ;
5 [label="petal width (cm) <= 0.855\nentropy = 0.569\nsamples = 3355\nvalue = [2905, 450]\nclass = setosa", fillcolor="#e99558"] ;
2 -> 5 ;
9 [label="petal length (cm) <= -0.588\nentropy = 0.737\nsamples = 1947\nvalue = [1543, 404]\nclass = setosa", fillcolor="#eca26d"] ;
5 -> 9 ;
13 [label="petal length (cm) <= -0.929\nentropy = 0.224\nsamples = 444\nvalue = [428, 16]\nclass = setosa", fillcolor="#e68640"] ;
9 -> 13 ;
33 [label="entropy = 0.0\nsamples = 216\nvalue = [216, 0]\nclass = setosa", fillcolor="#e58139"] ;
13 -> 33 ;
34 [label="entropy = 0.367\nsamples = 228\nvalue = [212, 16]\nclass = setosa", fillcolor="#e78b48"] ;
13 -> 34 ;
14 [label="petal width (cm) <= 0.501\nentropy = 0.824\nsamples = 1503\nvalue = [1115, 388]\nclass = setosa", fillcolor="#eead7e"] ;
9 -> 14 ;
17 [label="entropy = 0.948\nsamples = 579\nvalue = [367, 212]\nclass = setosa", fillcolor="#f4caab"] ;
14 -> 17 ;
18 [label="petal length (cm) <= 0.53\nentropy = 0.702\nsamples = 924\nvalue = [748, 176]\nclass = setosa", fillcolor="#eb9f68"] ;
14 -> 18 ;
41 [label="entropy = 0.776\nsamples = 595\nvalue = [459, 136]\nclass = setosa", fillcolor="#eda674"] ;
18 -> 41 ;
42 [label="petal length (cm) <= 1.221\nentropy = 0.534\nsamples = 329\nvalue = [289, 40]\nclass = setosa", fillcolor="#e99254"] ;
18 -> 42 ;
43 [label="entropy = 0.42\nsamples = 282\nvalue = [258, 24]\nclass = setosa", fillcolor="#e78d4b"] ;
42 -> 43 ;
44 [label="entropy = 0.925\nsamples = 47\nvalue = [31, 16]\nclass = setosa", fillcolor="#f2c29f"] ;
42 -> 44 ;
10 [label="petal width (cm) <= 1.125\nentropy = 0.208\nsamples = 1408\nvalue = [1362, 46]\nclass = setosa", fillcolor="#e68540"] ;
5 -> 10 ;
31 [label="entropy = 0.304\nsamples = 718\nvalue = [679, 39]\nclass = setosa", fillcolor="#e68844"] ;
10 -> 31 ;
32 [label="entropy = 0.082\nsamples = 690\nvalue = [683, 7]\nclass = setosa", fillcolor="#e5823b"] ;
10 -> 32 ;
6 [label="petal length (cm) <= 1.782\nentropy = 0.542\nsamples = 370\nvalue = [46, 324]\nclass = versicolor", fillcolor="#55abe9"] ;
2 -> 6 ;
19 [label="entropy = 0.876\nsamples = 132\nvalue = [39, 93]\nclass = versicolor", fillcolor="#8cc6f0"] ;
6 -> 19 ;
20 [label="entropy = 0.191\nsamples = 238\nvalue = [7, 231]\nclass = versicolor", fillcolor="#3fa0e6"] ;
6 -> 20 ;
}